{
  "pixel_classifier_type": "OpenCVPixelClassifier",
  "metadata": {
    "inputPadding": 0,
    "inputResolution": {
      "pixelWidth": {
        "value": 0.325,
        "unit": "µm"
      },
      "pixelHeight": {
        "value": 0.325,
        "unit": "µm"
      },
      "zSpacing": {
        "value": 1.0,
        "unit": "z-slice"
      },
      "timeUnit": "SECONDS",
      "timepoints": []
    },
    "inputWidth": 512,
    "inputHeight": 512,
    "inputNumChannels": 3,
    "outputType": "CLASSIFICATION",
    "outputChannels": [
      {
        "name": "Ignore*",
        "color": 16776702
      },
      {
        "name": "TBMacs",
        "color": -7770576
      }
    ],
    "classificationLabels": {
      "0": {
        "name": "Ignore*",
        "color": [
          180,
          180,
          180
        ]
      },
      "1": {
        "name": "TBMacs",
        "color": [
          137,
          110,
          48
        ]
      }
    }
  },
  "op": {
    "type": "data.op.channels",
    "colorTransforms": [
      {
        "channelName": "AF1"
      },
      {
        "channelName": "CD11c"
      },
      {
        "channelName": "CD68"
      },
      {
        "channelName": "Vimentin"
      }
    ],
    "op": {
      "type": "op.core.sequential",
      "ops": [
        {
          "type": "op.core.sequential",
          "ops": [
            {
              "type": "op.core.split-merge",
              "ops": [
                {
                  "type": "op.filters.multiscale",
                  "features": [
                    "GAUSSIAN",
                    "LAPLACIAN",
                    "WEIGHTED_STD_DEV",
                    "GRADIENT_MAGNITUDE",
                    "STRUCTURE_TENSOR_COHERENCE"
                  ],
                  "sigmaX": 0.5,
                  "sigmaY": 0.5
                },
                {
                  "type": "op.filters.multiscale",
                  "features": [
                    "GAUSSIAN",
                    "LAPLACIAN",
                    "WEIGHTED_STD_DEV",
                    "GRADIENT_MAGNITUDE",
                    "STRUCTURE_TENSOR_COHERENCE"
                  ],
                  "sigmaX": 1.0,
                  "sigmaY": 1.0
                },
                {
                  "type": "op.filters.multiscale",
                  "features": [
                    "GAUSSIAN",
                    "LAPLACIAN",
                    "WEIGHTED_STD_DEV",
                    "GRADIENT_MAGNITUDE",
                    "STRUCTURE_TENSOR_COHERENCE"
                  ],
                  "sigmaX": 2.0,
                  "sigmaY": 2.0
                },
                {
                  "type": "op.filters.multiscale",
                  "features": [
                    "GAUSSIAN",
                    "LAPLACIAN",
                    "WEIGHTED_STD_DEV",
                    "GRADIENT_MAGNITUDE",
                    "STRUCTURE_TENSOR_COHERENCE"
                  ],
                  "sigmaX": 4.0,
                  "sigmaY": 4.0
                },
                {
                  "type": "op.filters.multiscale",
                  "features": [
                    "GAUSSIAN",
                    "LAPLACIAN",
                    "WEIGHTED_STD_DEV",
                    "GRADIENT_MAGNITUDE",
                    "STRUCTURE_TENSOR_COHERENCE"
                  ],
                  "sigmaX": 8.0,
                  "sigmaY": 8.0
                }
              ]
            },
            {
              "type": "op.ml.feature-preprocessor",
              "preprocessor": {
                "normalizer": {
                  "offsets": [
                    0.0,
                    0.0,
                    0.0,
                    0.0,
                    0.0,
                    0.0,
                    0.0,
                    0.0,
                    0.0,
                    0.0,
                    0.0,
                    0.0,
                    0.0,
                    0.0,
                    0.0,
                    0.0,
                    0.0,
                    0.0,
                    0.0,
                    0.0,
                    0.0,
                    0.0,
                    0.0,
                    0.0,
                    0.0,
                    0.0,
                    0.0,
                    0.0,
                    0.0,
                    0.0,
                    0.0,
                    0.0,
                    0.0,
                    0.0,
                    0.0,
                    0.0,
                    0.0,
                    0.0,
                    0.0,
                    0.0,
                    0.0,
                    0.0,
                    0.0,
                    0.0,
                    0.0,
                    0.0,
                    0.0,
                    0.0,
                    0.0,
                    0.0,
                    0.0,
                    0.0,
                    0.0,
                    0.0,
                    0.0,
                    0.0,
                    0.0,
                    0.0,
                    0.0,
                    0.0,
                    0.0,
                    0.0,
                    0.0,
                    0.0,
                    0.0,
                    0.0,
                    0.0,
                    0.0,
                    0.0,
                    0.0,
                    0.0,
                    0.0,
                    0.0,
                    0.0,
                    0.0,
                    0.0,
                    0.0,
                    0.0,
                    0.0,
                    0.0,
                    0.0,
                    0.0,
                    0.0,
                    0.0,
                    0.0,
                    0.0,
                    0.0,
                    0.0,
                    0.0,
                    0.0,
                    0.0,
                    0.0,
                    0.0,
                    0.0,
                    0.0,
                    0.0,
                    0.0,
                    0.0,
                    0.0,
                    0.0
                  ],
                  "scales": [
                    1.0,
                    1.0,
                    1.0,
                    1.0,
                    1.0,
                    1.0,
                    1.0,
                    1.0,
                    1.0,
                    1.0,
                    1.0,
                    1.0,
                    1.0,
                    1.0,
                    1.0,
                    1.0,
                    1.0,
                    1.0,
                    1.0,
                    1.0,
                    1.0,
                    1.0,
                    1.0,
                    1.0,
                    1.0,
                    1.0,
                    1.0,
                    1.0,
                    1.0,
                    1.0,
                    1.0,
                    1.0,
                    1.0,
                    1.0,
                    1.0,
                    1.0,
                    1.0,
                    1.0,
                    1.0,
                    1.0,
                    1.0,
                    1.0,
                    1.0,
                    1.0,
                    1.0,
                    1.0,
                    1.0,
                    1.0,
                    1.0,
                    1.0,
                    1.0,
                    1.0,
                    1.0,
                    1.0,
                    1.0,
                    1.0,
                    1.0,
                    1.0,
                    1.0,
                    1.0,
                    1.0,
                    1.0,
                    1.0,
                    1.0,
                    1.0,
                    1.0,
                    1.0,
                    1.0,
                    1.0,
                    1.0,
                    1.0,
                    1.0,
                    1.0,
                    1.0,
                    1.0,
                    1.0,
                    1.0,
                    1.0,
                    1.0,
                    1.0,
                    1.0,
                    1.0,
                    1.0,
                    1.0,
                    1.0,
                    1.0,
                    1.0,
                    1.0,
                    1.0,
                    1.0,
                    1.0,
                    1.0,
                    1.0,
                    1.0,
                    1.0,
                    1.0,
                    1.0,
                    1.0,
                    1.0,
                    1.0
                  ],
                  "missingValue": 0.0
                },
                "inputLength": 100,
                "outputLength": 100
              }
            }
          ]
        },
        {
          "type": "op.ml.opencv-statmodel",
          "model": {
            "class": "ANN_MLP",
            "statmodel": {
              "opencv_ml_ann_mlp": {
                "format": 3,
                "layer_sizes": [
                  100,
                  2
                ],
                "activation_function": "SIGMOID_SYM",
                "f_param1": 1.0,
                "f_param2": 1.0,
                "min_val": -9.4999999999999996e-01,
                "max_val": 9.4999999999999996e-01,
                "min_val1": -9.7999999999999998e-01,
                "max_val1": 9.7999999999999998e-01,
                "training_params": {
                  "train_method": "RPROP",
                  "dw0": 1.0000000000000001e-01,
                  "dw_plus": 1.2000000000000000e+00,
                  "dw_minus": 5.0000000000000000e-01,
                  "dw_min": 1.1920928955078125e-07,
                  "dw_max": 50.0,
                  "term_criteria": {
                    "epsilon": 1.0000000000000000e-02,
                    "iterations": 1000
                  }
                },
                "input_scale": [
                  1.4825408643123349e-03,
                  -1.8482124257705637e+00,
                  1.2362264860327099e-03,
                  1.7252835031873230e+00,
                  5.4728834361467742e-02,
                  -6.7345552971630987e-02,
                  9.5190243399748842e-03,
                  -7.7097554977497507e-01,
                  4.0583829414198096e+00,
                  -3.0387104028763523e+00,
                  1.9464855571290607e-04,
                  -7.2994562499825622e-01,
                  1.5032887609771559e-04,
                  6.4306169385942480e-01,
                  3.8122714161497409e-03,
                  -2.3979441782343303e-01,
                  9.9607490893122521e-04,
                  -6.4064782729717906e-01,
                  3.9531882505203675e+00,
                  -2.9566637489033059e+00,
                  1.3092232726554017e-04,
                  -4.7814471699797734e-01,
                  1.1012933578175954e-04,
                  4.5505551719224629e-01,
                  6.5597640229439463e-03,
                  -1.9401651373406248e-01,
                  1.0040086398942541e-03,
                  -5.2162181643159800e-01,
                  3.7480704197200363e+00,
                  -2.6646246884612750e+00,
                  3.1814624021900804e-04,
                  -8.3016865448798249e-01,
                  2.5080625824967253e-04,
                  7.4524205636079521e-01,
                  1.1098187189904631e-02,
                  -2.0643869690152386e-01,
                  2.2622858489842624e-03,
                  -8.1323868469476601e-01,
                  3.8102827630925633e+00,
                  -2.7903326791577840e+00,
                  1.5490762413521346e-03,
                  -1.8770521887453078e+00,
                  1.6558015772628595e-02,
                  -5.8148811172151664e-03,
                  8.8434475907609219e-03,
                  -8.3426261632898446e-01,
                  9.0071444294412273e-03,
                  -7.2778467620465637e-01,
                  3.6525210152071930e+00,
                  -1.9686429399628900e+00,
                  2.0717442512482848e-04,
                  -7.5059796083282393e-01,
                  1.3404626068496200e-03,
                  7.1088923096871537e-02,
                  9.3294170066400930e-04,
                  -7.0496086197331398e-01,
                  1.0453294659153710e-03,
                  -6.6781119288507296e-01,
                  3.4370408370352554e+00,
                  -1.8998379782043942e+00,
                  1.3661860949454392e-04,
                  -4.8344492556707647e-01,
                  1.6956847597634746e-03,
                  4.3479338209230563e-02,
                  9.2826100825980928e-04,
                  -5.5763922305341451e-01,
                  1.0058747365137731e-03,
                  -5.2707624248065865e-01,
                  3.3648297871388988e+00,
                  -1.6409652037361306e+00,
                  3.3779429848976604e-04,
                  -8.5237827777236186e-01,
                  2.7793249198767248e-03,
                  8.4027977367348516e-02,
                  2.1029937318203856e-03,
                  -8.9084596407076477e-01,
                  2.2911715779259070e-03,
                  -8.2120490268666568e-01,
                  3.3850276105532089e+00,
                  -1.8203158653025577e+00,
                  1.6253708285343949e-03,
                  -1.9697853883180529e+00,
                  2.8483913858760177e-02,
                  8.2661581373300996e-03,
                  5.0211232366705215e-03,
                  -8.1904876191811693e-01,
                  1.0926477777112314e-02,
                  -6.8405823650866460e-01,
                  4.1881617880855302e+00,
                  -1.4153700151178201e+00,
                  2.2534532721400034e-04,
                  -8.0199558713691821e-01,
                  2.9250675551791153e-03,
                  1.0514885378613688e-01,
                  6.1136970636651092e-04,
                  -8.0454695390658260e-01,
                  1.5656490966000527e-03,
                  -7.4881819801740279e-01,
                  3.8114843469486765e+00,
                  -1.4367037974098216e+00,
                  1.4216889590857359e-04,
                  -4.9809783650384815e-01,
                  3.3066826292819313e-03,
                  7.4849603940344692e-02,
                  5.5006461022543904e-04,
                  -5.8919341949520543e-01,
                  1.2987625650631792e-03,
                  -5.4155468214118407e-01,
                  3.8278510301757169e+00,
                  -1.1957999675874305e+00,
                  3.6895200282546699e-04,
                  -9.1713549280692663e-01,
                  5.2403222620131269e-03,
                  1.1285954462592086e-01,
                  1.2742403109735484e-03,
                  -9.4542105012668232e-01,
                  3.2339795085339772e-03,
                  -8.9705777658947161e-01,
                  3.6937689864266159e+00,
                  -1.4102286292838169e+00,
                  1.8340862814015401e-03,
                  -2.2202643094246874e+00,
                  6.2567524454623227e-02,
                  2.0710292276338922e-02,
                  3.3763062591215995e-03,
                  -8.5094193869591450e-01,
                  1.7945949623204040e-02,
                  -7.0579651481113392e-01,
                  6.5851740702095665e+00,
                  -1.1043737016135327e+00,
                  2.6624122708447082e-04,
                  -9.0804054960819891e-01,
                  8.4041675786448635e-03,
                  1.5755840043645772e-01,
                  4.8053094679638094e-04,
                  -9.7273772845599116e-01,
                  2.9780657425327881e-03,
                  -8.9568337457513936e-01,
                  5.2873740925673536e+00,
                  -1.1517961956271123e+00,
                  1.5855080064932714e-04,
                  -5.3844199910442558e-01,
                  7.3419230616860254e-03,
                  1.0746374492712953e-01,
                  3.5862251019134415e-04,
                  -6.3840238015996886e-01,
                  1.8571838367502020e-03,
                  -5.6866773402024995e-01,
                  5.1663759941222400e+00,
                  -9.5609245601596371e-01,
                  4.5181850330913812e-04,
                  -1.0857817140482142e+00,
                  1.3874530124542813e-02,
                  1.3198148793843573e-01,
                  9.3286814653360188e-04,
                  -1.0911120328356665e+00,
                  5.5734480341686184e-03,
                  -9.9428198953557234e-01,
                  4.4239483965323148e+00,
                  -1.1487503640917636e+00,
                  2.2371420735882355e-03,
                  -2.7004162450998250e+00,
                  2.3598540084019154e-01,
                  2.4661869879142147e-02,
                  2.9509244775706542e-03,
                  -9.7590571666511783e-01,
                  4.8753664150636124e-02,
                  -9.0429035176244976e-01,
                  1.4167937922714669e+01,
                  -9.5871043632997288e-01,
                  3.4914601134241756e-04,
                  -1.0996661828187440e+00,
                  3.2514334906441740e-02,
                  2.3311661066606765e-01,
                  4.5399879297320777e-04,
                  -1.2219347124344571e+00,
                  7.0268942819588717e-03,
                  -1.1023367940973319e+00,
                  8.6700144427263979e+00,
                  -9.9750389273837714e-01,
                  2.0114543217038144e-04,
                  -6.3742820787093835e-01,
                  2.0210907797654536e-02,
                  1.4607702147022894e-01,
                  2.6993230321802644e-04,
                  -7.3182963423459446e-01,
                  3.1894050411251321e-03,
                  -6.4666746518551210e-01,
                  9.3158916564045189e+00,
                  -8.8471924068025076e-01,
                  6.4404894056491083e-04,
                  -1.4710069254130749e+00,
                  5.0416649965359196e-02,
                  1.5674130933457564e-01,
                  8.5910691596806962e-04,
                  -1.3615354799156068e+00,
                  1.1862285121197738e-02,
                  -1.0792373665205530e+00,
                  6.1503169280999623e+00,
                  -1.0617191286194418e+00
                ],
                "output_scale": [
                  1.0,
                  0.0,
                  1.0,
                  0.0
                ],
                "inv_output_scale": [
                  1.0,
                  0.0,
                  1.0,
                  0.0
                ],
                "weights": [
                  [
                    2.0972454927590461e-01,
                    -3.5432038840520841e-01,
                    -9.4852167657073061e-01,
                    1.8581746334912190e+00,
                    1.7732893513602375e+00,
                    -3.3006137066201475e+00,
                    -4.0975578751217340e-01,
                    -5.6955303540957469e-01,
                    -3.2559544253601824e-01,
                    -1.3212885879489250e-01,
                    -6.6578806984941796e-01,
                    8.5704091761390688e-01,
                    9.5276934910181288e-01,
                    -6.7815085788237439e-01,
                    4.8518779096439724e-01,
                    -1.0277374107222113e+00,
                    -7.0267270658860537e-01,
                    8.9030478786356837e-01,
                    2.0160623827581686e-01,
                    -2.1572273657273588e-01,
                    -7.7457459811399176e-02,
                    1.8496521969798161e+00,
                    9.6738450603481374e-01,
                    -1.2769862174506903e+00,
                    9.0839379647457730e-01,
                    -8.5478586957889657e-01,
                    -8.9542523232830185e-01,
                    8.5529404019000577e-01,
                    -4.3202977831879846e-01,
                    -3.3799791292042147e-01,
                    -7.0351624730774409e-01,
                    3.3075085959857642e-01,
                    -5.4495112022431691e-01,
                    7.9165318357924730e-01,
                    -3.8659462373751602e-01,
                    -3.3094456686131085e-01,
                    -5.2332028665863162e-01,
                    4.8603515018521870e-01,
                    -2.4522820779125548e-01,
                    -2.0991566312663615e-01,
                    1.7348261825238185e+00,
                    -1.4126629028045778e+00,
                    2.9490228797592161e-01,
                    -1.4351316284648857e-01,
                    -3.6680968830000646e-02,
                    1.6327514510394783e+00,
                    -4.0501130779346245e-01,
                    -7.3381774852697956e-01,
                    7.3913219945880337e-01,
                    1.7962332714364382e-01,
                    -9.5784865156609655e-01,
                    2.2268467596802206e+00,
                    -1.8309546535190419e-01,
                    -4.9509083701643886e-01,
                    -1.0545793063752469e+00,
                    5.6885680580093589e-01,
                    8.0362375345891945e-01,
                    4.0927230829105066e-01,
                    -4.6387459148099752e-01,
                    5.5896710608299011e-03,
                    -1.6738595758132304e+00,
                    1.4660441729233640e+00,
                    -5.5304266922854201e-02,
                    5.5718026583925917e-01,
                    -4.6395425862716860e-01,
                    7.4527803960829742e-01,
                    1.0703041731354120e-01,
                    4.6249623238151533e-01,
                    1.0373860422466415e-01,
                    6.8101341337097387e-01,
                    -7.4911354260767626e-01,
                    1.6644047406995613e-01,
                    3.5431327144144548e-01,
                    3.3370315142046025e-01,
                    7.6907957499533997e-01,
                    4.5692073621528401e-01,
                    3.4852158076582029e-01,
                    -9.7980558273939200e-01,
                    7.3480513498259725e-01,
                    4.1961537412294908e-01,
                    1.8172632858429086e-01,
                    -9.9312711550648614e-01,
                    3.4074702035447896e-01,
                    -8.5137715589234941e-01,
                    -5.5556054213183637e-01,
                    5.2959165188736212e-01,
                    3.6062240418468161e-01,
                    6.0280740872058003e-01,
                    -8.5431659920039882e-01,
                    8.3344658814553962e-01,
                    9.5413469638433202e-01,
                    4.2732571800809183e-01,
                    8.6139857360214578e-01,
                    1.7130537332635928e-01,
                    -7.2802279150659910e-01,
                    1.8463296647321253e-01,
                    4.3251522654308805e-01,
                    2.6400390811224687e-02,
                    8.8482633982570846e-01,
                    3.4169737540108652e-01,
                    -1.2345901511638933e+00,
                    1.7700491013526520e+00,
                    4.9554467866483282e-01,
                    2.9208449525038660e-01,
                    -3.2408094028628048e-01,
                    1.3330920028839106e+00,
                    2.0864241499775427e-01,
                    1.3207271001133816e+00,
                    -3.6737989045771774e-01,
                    -3.2271463181920479e-01,
                    -1.3355783046456415e-01,
                    -6.6006054148008209e-01,
                    -2.7843335448527562e-01,
                    -3.9352193937966756e-01,
                    -6.3584928749532832e-01,
                    6.8022537101743152e-01,
                    6.6629436882772441e-01,
                    -4.1980367607781210e-01,
                    -7.0502430387351067e-01,
                    -2.0175129912760859e-01,
                    1.7397499059692796e+00,
                    -7.9081427939113946e-01,
                    2.0810626350406358e-01,
                    -1.0477852079372956e+00,
                    -6.3722373535892196e-01,
                    6.7450872728307554e-01,
                    -1.0407791278430717e-01,
                    6.1969523207980848e-01,
                    6.8893762383199456e-02,
                    -2.8826999745141324e-01,
                    -6.7849492280928059e-01,
                    9.7439018238412856e-01,
                    7.8018444031466982e-01,
                    -4.0366006507245783e-02,
                    -7.4199583805998814e-01,
                    -4.1279607877454716e-02,
                    4.8893389179266666e-01,
                    -4.2952905507217060e-01,
                    -1.6000282981996516e-01,
                    -8.6325433027467213e-01,
                    -1.5639048313125037e+00,
                    1.5918455065718542e+00,
                    1.7426435938702767e-01,
                    -2.4491315150851109e-01,
                    5.7252973360524129e-01,
                    -6.7877541063898483e-01,
                    -6.3125349926215313e-01,
                    2.8906385370860360e-01,
                    -4.6966804928286382e-01,
                    5.9963822607444306e-01,
                    2.1373167752957076e-01,
                    -2.9291512257536612e-01,
                    3.6081162496166164e-01,
                    -8.7534613400788075e-01,
                    -3.2293258497567645e-01,
                    4.3523228031452932e-01,
                    1.9682565921098119e-01,
                    5.6144468467749098e-01,
                    8.9854953983951498e-03,
                    7.1725365017144238e-01,
                    3.3758620325095090e-01,
                    -1.4195444765926686e+00,
                    9.4949143462579344e-01,
                    -1.0807628849369595e+00,
                    1.0264196795535208e-01,
                    2.1213692801322667e-02,
                    -1.2861284316913410e-01,
                    -4.5887251392014833e-01,
                    2.8837841946382636e-01,
                    -7.8887287228854253e-01,
                    -5.0748501910860089e-01,
                    1.9187169865139375e-01,
                    -6.2366225588731261e-01,
                    1.2457503198871935e+00,
                    -2.7520811709899362e-01,
                    -4.9312371688995188e-01,
                    -5.0091823816411385e-01,
                    7.7336260652798827e-01,
                    -4.2211343963049025e-01,
                    9.7610497671478891e-01,
                    -1.4238584178368308e+00,
                    1.2720125633059698e+00,
                    5.6690892739838750e-01,
                    -8.5575602681321261e-01,
                    -4.0973469522227063e-01,
                    -9.5850115359040511e-01,
                    -1.7188075775859679e-01,
                    1.0209537597605158e+00,
                    -3.9543532153933927e-02,
                    4.7044876728597258e-02,
                    -5.9837906156327725e-01,
                    -2.5584915740563396e-01,
                    1.6542850138150078e-01,
                    -6.7283869667631602e-01,
                    7.3291020517711858e-01,
                    -1.5669747845774226e-01,
                    8.2130226574218934e-01,
                    -7.4847736172879120e-01,
                    2.1568196950857471e-01,
                    -2.6983744896275197e-01,
                    -1.3271485082759429e+00,
                    8.2815359222611307e-01
                  ]
                ]
              }
            }
          },
          "requestProbabilities": false
        },
        {
          "type": "op.core.convert",
          "pixelType": "UINT8"
        }
      ]
    }
  }
}